,emb_0,emb_1,emb_2,emb_3,emb_4,emb_5,emb_6,emb_7,emb_8,emb_9,emb_10,emb_11,emb_12,emb_13,emb_14,emb_15,emb_16,emb_17,emb_18,emb_19,emb_20,emb_21,emb_22,emb_23,emb_24,emb_25,emb_26,emb_27,emb_28,emb_29,emb_30,emb_31,emb_32,emb_33,emb_34,emb_35,emb_36,emb_37,emb_38,emb_39,emb_40,emb_41,emb_42,emb_43,emb_44,emb_45,emb_46,emb_47,emb_48,emb_49,emb_50,emb_51,emb_52,emb_53,emb_54,emb_55,emb_56,emb_57,emb_58,emb_59,emb_60,emb_61,emb_62,emb_63
Impranil,0.0059203682,0.25111073,-0.15933612,-0.18243952,0.15985942,-0.31507203,0.3582759,0.28887743,-0.15229048,0.40894395,-0.3396297,-0.12072093,-0.20689717,0.2631781,-0.060217198,0.11846147,-1.2177018,0.19615676,0.56148404,-0.01900523,-0.21240379,-0.06305365,-0.48987657,0.09832641,-0.16211143,0.27428094,0.07951399,0.18745698,0.5418013,-0.026339618,-0.057919696,0.5319311,0.33817166,-0.50633377,-0.64057577,0.05782326,-0.06631798,-0.09793794,-0.26767227,0.045083042,-0.048860393,-0.0522877,0.06399396,0.30594,0.3458296,0.19151647,-0.3169991,0.031431787,0.052346434,0.323127,-0.034881238,-0.36101234,0.51551753,-0.4653226,-0.020997806,-0.3748719,-0.07128943,0.20791899,-0.27708793,0.359513,-0.07249906,-0.41781008,-0.34488514,0.41872016
P(3HB-co-3MP),0.10744259,-0.09563241,0.17592908,0.7998258,-0.54089683,-0.11589579,0.28374106,0.10487095,-1.0430101,0.7670833,-0.3147404,0.5853907,-0.3791874,0.1454479,-0.42030287,0.32564688,-0.4648446,0.60664797,0.5227307,0.028460136,-0.2612673,0.28763402,0.19194375,0.7750213,0.3811438,0.23235503,0.49300247,-0.020665623,0.13256772,0.23046301,-0.97136796,0.4098684,0.5953755,0.17662746,-0.7234493,0.37814987,0.4727012,0.1959486,-0.61689645,-0.42993295,-0.33089796,-0.56512,-0.5654498,-0.21691051,0.46663713,0.70414716,0.4154251,-0.666538,-0.25085396,-0.041019853,0.16419782,-0.10352007,-0.16303699,-0.6513119,-0.12248327,-0.18958306,-0.42906424,-0.14275959,-0.30009574,0.7688514,0.42549464,-0.46547475,-0.6892082,0.47283325
ECOFLEX,0.0872137,-0.027604504,0.4941459,-0.16630739,-0.042230226,0.008261636,0.3712004,0.5304909,-0.6937625,0.36851662,0.28380919,0.2143682,0.12793475,-0.25970188,0.2064371,0.17182367,-0.14599708,0.32428384,0.22912942,0.31807724,0.08581946,-0.0712303,0.38570103,0.03993459,-0.19373035,0.033426717,0.10144111,0.061505046,0.26564252,-0.23722254,-0.09882945,0.50953364,0.5132048,0.39408898,-0.40324426,0.27584085,0.4410117,-0.09565215,-0.5274996,0.05463082,-0.4994033,-0.37565494,0.21261905,0.5130241,0.28702018,0.2965091,0.06846987,-0.10752184,-0.044877753,0.42108738,-0.32577485,-0.07508977,-0.5128728,-0.38091445,-0.10250985,-0.24531068,0.050985716,-0.43101344,-0.15927579,0.59551936,-0.045383055,-0.3157269,-0.12458838,0.29308808
PCL,0.004623916,0.09360569,0.17563543,0.009588968,-0.10335086,-0.22813278,0.3645843,0.15477483,-0.43864843,0.39261493,0.030280072,0.18829967,0.13661514,0.043864187,-0.052153666,0.3229427,-0.30210942,0.3283258,0.30518395,0.23912062,-0.028908625,-0.07382528,-0.021972764,0.17840937,0.09553412,0.15130365,0.11243641,0.13147989,0.19443454,-0.06613167,-0.16602287,0.39463675,0.29626384,0.15912794,-0.31380424,0.19807409,0.11365178,0.0535748,-0.34933674,-0.10520857,-0.12602364,-0.10431961,-0.06720431,0.14990938,0.24405251,0.27837914,0.01972008,-0.097924866,-0.12486402,0.21130456,-0.088446185,-0.033829276,-0.12104305,-0.262264,-0.021135971,-0.17178632,0.062206138,-0.24025819,-0.236614,0.43855378,0.19695911,-0.36523765,-0.14327243,0.22722358
PLA,0.0032986253,0.2651718,0.42571655,0.033865266,-0.056988783,-0.37060216,0.62961763,0.16126238,-0.8204976,0.5523144,0.16300628,0.27328733,0.24764596,-0.049087595,0.021243207,0.6438322,-0.13340013,0.52260303,0.4016493,0.34687808,0.0025454327,-0.36684674,0.04082711,0.28500077,0.19270946,0.21991473,0.26974872,0.37186313,0.28863394,0.02241312,-0.13312207,0.65282345,0.44635504,0.5015785,-0.44549242,0.21170352,0.21031542,-0.041518684,-0.3370815,-0.20457928,-0.19243969,-0.05880397,-0.11181465,0.3198452,0.43322164,0.44675934,-0.075632066,-0.12778929,-0.28180227,0.1938965,-0.1819391,0.060571596,-0.3686683,-0.29248205,0.016977314,-0.1528121,0.53739387,-0.529933,-0.34121862,0.64449507,0.21146235,-0.3175833,-0.23110768,0.24004476
O-PVA,0.3567724,0.41159406,0.5493141,-0.72526616,-0.08652035,-1.5021077,1.3546923,-0.3533745,-0.9387998,1.4107802,-0.12247782,0.27944335,1.5684774,0.32043374,0.012823645,1.891624,-0.162166,1.2013205,0.936103,-0.2217826,-0.30230674,-0.8273266,-0.1059127,1.2408454,0.6776143,0.7539692,-0.62472063,0.8837802,0.115586214,-0.007894639,0.065893486,0.55602825,0.21182963,0.83569765,0.23746324,0.42673686,-0.53132546,-0.26663825,0.3842083,-1.0388592,0.22260746,1.2190982,-1.037833,0.4775217,0.8752804,0.31051812,-0.79977626,0.6454712,-0.1354054,-0.066634305,-0.16898157,0.23988236,-1.4446298,-0.3877195,1.0191551,-0.8986511,1.1312411,-1.2493129,-0.83752173,1.5173407,0.60245323,-0.5800434,-0.28687942,-0.55629116
PMCL,-0.07964759,-0.0692705,-0.09462525,0.002514873,-0.1260843,-0.08809182,0.08075102,0.008338685,0.047184687,0.0059160413,0.053971723,0.0569052,0.14998452,-0.022337893,-0.12592292,0.1258166,-0.11973687,0.079248644,0.10408256,0.1470037,0.04146945,0.083401635,-0.09757981,-0.05431676,0.07995014,0.091897115,-0.07832781,-0.1126826,-0.03331712,-0.2411036,0.014188854,0.02541682,0.0008894172,-0.04456674,0.05902379,0.14009234,-0.059604242,0.33151945,-0.32459706,0.05724917,0.025671216,0.021959819,0.049521476,-0.1516312,-0.14130543,-0.09511732,0.064299695,0.028220061,-0.10136832,0.20970961,0.026330411,0.064724706,0.08482157,0.032442003,-0.1677338,-0.005065321,-0.21797036,-0.036354404,-0.19991225,0.10243705,0.32889262,-0.28514564,0.18845926,0.08570319
PHO,0.15138182,0.27841255,0.092575856,0.28965917,-0.5582978,-0.63541883,0.4895715,0.049781635,-0.48933363,0.31761175,-0.16385038,0.28253388,0.13820787,-0.20517032,-0.23256925,0.66775626,-0.2167316,0.4826561,0.5919706,0.359839,-0.27570593,-0.37240574,-0.34027874,0.5911508,0.2942399,0.2516363,0.5505728,0.41402793,0.36372155,-0.087123364,-0.03563633,0.53599006,0.44793135,0.66143095,-0.48924822,0.28206837,-0.049037717,0.36585727,-0.5244022,-0.43976286,0.015703287,0.044819053,0.046986356,-0.18450579,0.29789144,0.20700188,-0.016816394,-0.040067095,-0.57351375,0.05841731,0.010576863,0.24477531,-0.10023707,-0.085863635,-0.038480233,0.28736234,0.50280297,-0.31671405,-0.65229064,0.74939203,0.33085266,-0.2758402,-0.14938414,0.19641984
PHBH,-0.08181926,0.3434985,0.22641705,-0.021280592,-0.32600638,-0.304752,0.5058552,0.07765628,-0.40317836,0.79405224,-0.104561195,0.46884418,0.51741457,0.54079133,-0.19475715,0.5596055,-0.34790778,0.781089,0.67486453,0.4961613,-0.023411818,-0.47418433,-0.29158852,0.28469387,0.6458125,0.37851718,-0.0007417017,0.31947413,0.18214856,-0.074359685,-0.21720144,0.5349735,0.17452715,0.22872274,-0.33634222,-0.061219156,0.11243239,0.0040445225,-0.32027128,-0.18361442,-0.35559142,0.051825102,-0.38526052,-0.127866,0.28808248,0.44827458,-0.06275374,-0.5260633,-0.14155102,0.28873387,-0.05057801,-0.21482936,-0.08517768,-0.4157852,0.049550693,0.018173944,0.2196383,-0.5829619,-0.6467506,0.73610055,0.3436721,-0.49159664,-0.12160122,0.17077114
LDPE,-0.009261045,-0.16494983,0.2508365,0.37463892,0.13854797,-0.3423931,0.31522736,-0.2315601,-0.959967,0.3842797,0.19160654,0.06904632,-0.3606712,-0.14137733,-0.09579498,0.45566672,-0.16571647,0.1560748,0.016085403,-0.11061039,-0.06543086,0.44057915,0.37954447,0.41373602,-0.13971084,-0.1894395,0.59905535,0.020201402,0.11515097,0.37449402,-0.6530394,0.26012173,0.45256436,0.25064477,-0.30273443,0.43598172,0.13398986,0.08332446,-0.06629384,-0.3794722,0.2701871,-0.20478001,-0.2834339,0.37206626,0.40906382,0.46279746,0.1522563,0.26442564,-0.25954893,-0.17183147,0.061029352,0.117384724,-0.33680207,-0.15545805,0.0762336,-0.5749911,0.11045172,0.032333575,0.27428156,0.34749404,0.3464198,-0.18216947,-0.5061508,0.31904516
PPL,0.0032986253,0.2651718,0.42571655,0.033865266,-0.056988783,-0.37060216,0.62961763,0.16126238,-0.8204976,0.5523144,0.16300628,0.27328733,0.24764596,-0.049087595,0.021243207,0.6438322,-0.13340013,0.52260303,0.4016493,0.34687808,0.0025454327,-0.36684674,0.04082711,0.28500077,0.19270946,0.21991473,0.26974872,0.37186313,0.28863394,0.02241312,-0.13312207,0.65282345,0.44635504,0.5015785,-0.44549242,0.21170352,0.21031542,-0.041518684,-0.3370815,-0.20457928,-0.19243969,-0.05880397,-0.11181465,0.3198452,0.43322164,0.44675934,-0.075632066,-0.12778929,-0.28180227,0.1938965,-0.1819391,0.060571596,-0.3686683,-0.29248205,0.016977314,-0.1528121,0.53739387,-0.529933,-0.34121862,0.64449507,0.21146235,-0.3175833,-0.23110768,0.24004476
PEA,0.036117647,-0.3470134,-0.012841915,0.61043084,-0.08758043,-0.35750884,0.01955498,-0.4583495,-0.7531305,0.16637707,-0.038472842,0.20553264,-0.36542034,-0.34213558,-0.19127676,0.64909095,0.093323216,-0.0012723283,-0.094830304,-0.04603481,0.03499462,0.4066417,0.3440347,0.5890049,-0.035617042,-0.24853835,0.51480865,-0.12698339,-0.12559828,0.077498324,-0.50615877,0.08809766,0.37853253,0.39253497,-0.006168507,0.56784034,0.06184488,0.47227952,-0.10444796,-0.58991146,0.3026469,0.039837856,-0.28593642,0.07096583,0.058817066,0.17260776,0.14048532,0.28360906,-0.42347544,-0.2311296,0.13355204,0.42049566,-0.23353891,0.054594558,-0.033077836,-0.25129882,0.26106316,-0.10799817,-0.09683355,0.38173407,0.728934,-0.15128818,-0.2516816,0.13438693
P4HB,0.048539363,-0.36048737,-0.098080195,0.5530172,-0.04630174,-0.28239644,-0.0640213,-0.4087389,-0.5454264,0.07039981,0.020106126,0.15639856,-0.34221888,-0.34691635,-0.20729038,0.537337,0.094149314,-0.07406738,-0.050610784,-0.04179487,0.04590287,0.45187604,0.27339488,0.46607727,-0.04701185,-0.21064414,0.37166277,-0.20780921,-0.14538898,0.016162002,-0.44344667,-0.0059766294,0.29769322,0.28221178,0.058179874,0.50129867,-0.005321573,0.4884232,-0.12440409,-0.46658978,0.3013248,0.007961218,-0.20350283,-0.013419092,-0.031225564,0.05598646,0.13320689,0.2715236,-0.35725886,-0.16595481,0.12487825,0.4060221,-0.10808234,0.0790089,-0.09382599,-0.18193996,0.117724404,-0.043644186,-0.059952166,0.30102006,0.6692014,-0.15601546,-0.14463641,0.11045828
PHBV,-0.015372597,0.16249317,0.18841772,0.12430955,-0.2916258,-0.26510975,0.35763645,0.034806963,-0.40488604,0.5467582,-0.09443297,0.40426004,0.27657458,0.25825125,-0.21011792,0.47095558,-0.19949937,0.5146053,0.47092965,0.3679446,-0.023341028,-0.17540969,-0.08171236,0.31612012,0.40278253,0.22941896,0.06455555,0.1854495,0.064351,-0.04959492,-0.27644002,0.42888024,0.22009023,0.21673062,-0.2839999,0.103455804,0.11551371,0.096776836,-0.3205169,-0.21925421,-0.21375072,-0.064890176,-0.30689222,-0.07585659,0.24698716,0.36465573,0.11815167,-0.364627,-0.14336689,0.20253289,0.016685208,-0.024517367,-0.12842043,-0.26289356,0.0017084978,-0.053413928,0.07607406,-0.43562225,-0.4480583,0.5674354,0.3840797,-0.42822126,-0.12355913,0.17927708
PBSeT,0.14465034,-0.18374398,0.7893736,-0.31261376,-0.18280643,-0.7760748,1.1556847,0.54484135,-1.0683316,0.49470899,0.09323088,-0.36095986,0.4348795,-0.5767001,0.2884932,0.23450758,-0.49010724,0.097087994,0.18184476,0.025042783,-0.10198167,0.33695808,0.20256095,0.4623931,-0.3350789,-0.027243938,0.14586437,0.1797261,0.74779195,0.01669284,-0.42872542,0.60927737,1.0526698,0.4644536,-0.76734805,0.7531147,0.5930464,-0.32893717,-0.29697755,-0.4012884,0.19263273,-0.062898636,0.3831722,0.8086217,0.83486617,0.44383135,-0.23416205,0.49335694,0.23275082,-0.009606959,-0.39159068,-0.16173787,-1.1195441,-0.69778955,0.2387047,-0.91170883,0.10925853,-0.192555,0.18646783,1.1075647,-0.2740174,-0.6016261,-0.5383316,0.24709655
PET,0.06278539,0.044545338,0.44219932,0.06508882,0.21980365,-0.2757389,0.4820674,0.20055641,-0.88727075,0.41094813,0.3358028,0.09871089,-0.028965306,-0.18949813,0.12036611,0.36340523,-0.20622694,0.20503569,-0.009250322,0.03507197,-0.0012131742,0.051839445,0.25847808,0.114715636,-0.2217583,0.034586553,0.34688878,0.1630851,0.34552142,0.1546091,-0.24158964,0.4570487,0.4138836,0.334483,-0.3834827,0.36869466,0.18644792,-0.1400339,-0.22647247,-0.15334883,-0.022462377,-0.22766197,-0.010307997,0.5963966,0.48998353,0.4720728,-0.0049053025,0.09096037,-0.20519568,0.09901866,-0.23634405,0.068719566,-0.38805845,-0.2449804,0.08497748,-0.5404958,0.2591169,-0.13347,0.1604456,0.34678212,0.07169501,-0.2350916,-0.29279765,0.3336989
PHBVH,-0.096140414,0.34235606,0.23272844,-0.1829178,-0.1940967,-0.33190852,0.44763923,0.024513863,-0.12960348,0.5540264,-0.024345161,0.4259733,0.70289224,0.4610845,-0.14689437,0.6255654,-0.09977323,0.677404,0.5553403,0.63387877,0.13689291,-0.52066535,-0.2786062,0.11570387,0.59707856,0.34153023,-0.22007331,0.32799834,-0.023698298,-0.19974457,0.0031206917,0.48275417,0.03388887,0.23451065,-0.13312905,-0.116182216,-0.01688146,0.030611914,-0.19512321,-0.120313674,-0.26227263,0.18228263,-0.3026135,-0.07694759,0.19992885,0.25053197,-0.05793973,-0.41170987,-0.0655785,0.39836285,-0.04513909,-0.0046296534,-0.07643309,-0.16915253,0.109768406,0.07327771,0.3263084,-0.70783424,-0.6786831,0.50275624,0.42126107,-0.43212467,0.13474753,0.04942325
NR,0.3278027,-0.014296169,1.3421617,0.44767228,0.122466445,-1.1281126,1.6425989,0.3020069,-3.3023474,2.5974808,-0.096044846,0.55600655,-1.1579777,0.2110794,0.05332048,1.34479,-0.8282033,1.6561528,1.4420006,0.017134352,0.120648086,-0.44113165,0.51637673,1.9598131,0.47884578,0.58376396,1.9430488,0.5491861,0.9938043,1.3505281,-2.0875401,1.8258483,1.8178785,1.0760847,-1.6574471,0.45694616,1.2888329,-0.85595995,-0.5346935,-1.6186299,-0.23746294,-0.43917936,-0.92446303,1.4356844,1.9838668,2.350766,-0.3886956,-0.7135646,-0.4581125,-0.1788132,-0.3750696,-0.26912352,-0.8318578,-1.6725701,1.2573829,-1.2188499,1.2131412,-1.1580449,-0.14370336,1.6669414,0.27164045,-0.92597044,-1.9091299,1.072027
PBAT,0.08633532,0.010600193,0.4879367,-0.018401885,0.0863002,-0.2976342,0.55205435,0.29916158,-0.89046043,0.4359827,0.27629983,0.08436663,0.061137207,-0.25919485,0.15973066,0.35350314,-0.21272594,0.23233455,0.08781173,0.1224587,0.009336497,0.058253855,0.28506774,0.18695498,-0.19989793,0.017976765,0.26473868,0.14969881,0.33861902,0.041016538,-0.24060783,0.50458276,0.538782,0.37668902,-0.45941588,0.40510756,0.2932266,-0.13077126,-0.2861491,-0.19040547,-0.10266013,-0.20662802,0.07007359,0.60702354,0.48879722,0.42156357,-0.013489635,0.108259454,-0.12674713,0.1484576,-0.24401191,0.036686525,-0.5142543,-0.32518727,0.0701923,-0.49193087,0.23443545,-0.23849301,0.062745,0.5209292,0.03579439,-0.30478022,-0.28329605,0.3050815
PEG,0.19389018,-0.057065908,0.2661635,-0.15386204,0.08625592,-0.9257927,0.15667194,-0.5581579,-0.5689214,0.26929784,0.22785157,0.13135733,0.3951044,-0.6497683,-0.33102843,1.1767164,0.7790715,-0.047695294,-0.24887222,-0.3737466,-0.022954365,0.1909281,0.47916868,0.8795015,-0.25619093,-0.18193792,0.40958616,0.15696378,-0.16780749,-0.1367481,0.1228996,0.19923787,0.38707584,1.123771,0.32094017,0.6463844,-0.406304,0.5881978,0.22501558,-1.0381199,0.20062631,0.6217375,-0.3848308,0.51853925,0.28285035,0.1733876,-0.2506679,0.6762512,-0.44830954,-0.30196,-0.1793852,0.85595226,-1.0937576,0.7079875,0.5314721,-0.49754584,0.8278489,-0.7975225,-0.422113,0.904934,0.9851577,0.02159057,-0.12694713,-0.4393775
PEF,-0.03550857,0.08335497,0.72232395,0.01449373,0.3962243,-0.3612699,0.64397484,0.17134202,-1.2096864,0.47291487,0.65257716,0.07944982,0.03633886,-0.21444274,0.18998477,0.46877322,-0.021352438,0.2818252,-0.09895716,-0.0113565335,0.03292198,-0.05392026,0.40908146,0.1270653,-0.28232002,0.011372331,0.57023513,0.35078308,0.4321049,0.36488748,-0.28664604,0.5786207,0.45475978,0.5009148,-0.4383897,0.38459313,0.18441552,-0.25452375,-0.07951268,-0.1530204,0.04441474,-0.23819502,-0.002554447,0.7809273,0.68202716,0.6372732,-0.020966625,0.1608163,-0.35909656,-0.024033675,-0.2390457,0.16061366,-0.67110497,-0.13119346,0.14927457,-0.719917,0.4959648,-0.17012519,0.30177245,0.31902143,0.025678582,-0.029089464,-0.3907525,0.33429393
PHV,0.063954115,-0.014619315,0.12813206,0.6174289,-0.50910467,-0.1622092,0.23280002,0.04090699,-0.8078616,0.6704664,-0.2987955,0.47441277,-0.31267253,0.14609937,-0.38588056,0.2705754,-0.41366848,0.47025067,0.5124025,0.049784314,-0.30592853,0.26261854,0.12519374,0.69468033,0.32638514,0.14805111,0.49279752,0.034528606,0.1849648,0.20610483,-0.79329586,0.39241514,0.45191494,0.14220856,-0.54651815,0.32844618,0.34261855,0.18644938,-0.56306404,-0.39880005,-0.24996637,-0.4578332,-0.46965852,-0.21390949,0.35165465,0.629437,0.4182631,-0.4952124,-0.2579389,-0.032847427,0.19837864,-0.15318628,-0.1194116,-0.48695993,-0.14352368,-0.154537,-0.37348914,-0.056490507,-0.21529146,0.71599156,0.362924,-0.5201568,-0.56534463,0.3752046
PES,0.09716512,-0.09698275,0.21915157,0.31833673,-0.1325657,-0.34146568,0.27865142,-0.03197224,-0.8136507,0.34428132,0.0779359,0.19477604,-0.12754418,-0.31308392,-0.058672428,0.53839815,-0.09443735,0.18255389,0.10106124,0.07726655,-0.019750362,0.16703187,0.22772294,0.47703025,-0.062007304,-0.05339786,0.4422542,0.07930525,0.16810943,0.037615653,-0.35632083,0.3521906,0.47864854,0.46883473,-0.24754126,0.4983769,0.1512294,0.1978643,-0.31197265,-0.39145952,0.04573764,-0.11016063,-0.063051686,0.26593313,0.2697358,0.33403438,0.05867522,0.11919731,-0.3578541,-0.050154947,-0.09392885,0.24513507,-0.33371162,-0.18297987,-0.024303775,-0.2799451,0.31490454,-0.20712842,-0.09861865,0.57975125,0.38232163,-0.2669578,-0.26727185,0.21432407
PHB,0.059007417,0.0050684754,0.26372552,0.22125411,-0.12178526,-0.24926049,0.3475392,0.06556097,-0.72542137,0.45684493,0.035719458,0.27215704,-0.0021634044,-0.06832843,-0.05440052,0.46089628,-0.16941476,0.33390146,0.25809184,0.19375354,-0.020260511,0.036446963,0.15903689,0.34907007,0.10204798,0.070248395,0.24688904,0.09768806,0.13481063,0.025027473,-0.35154435,0.41493088,0.41231483,0.31965342,-0.34866795,0.32181406,0.19983605,0.06861869,-0.34223452,-0.27611038,-0.11091365,-0.17611499,-0.17871152,0.20004141,0.2965513,0.3863684,0.09059974,-0.107170686,-0.20596181,0.09969416,-0.07328651,0.075938985,-0.24903408,-0.27888998,-0.005754651,-0.2293888,0.15204976,-0.30000424,-0.18681479,0.559292,0.31556863,-0.34346738,-0.26093358,0.25389624
Nylon,0.3079633,0.43683785,-0.13841346,0.15407473,0.68849987,-0.43738514,0.6222349,0.015135523,-0.8203627,0.5396,-0.50198674,0.022437466,-0.29504517,0.278965,0.52996737,0.80811024,-0.9118909,0.013248654,0.20946725,0.2369463,-0.025619695,0.1743302,-0.10695214,0.09324198,-0.056641344,0.40050286,-0.17523478,0.07788952,0.2109569,0.68717456,-0.21704455,0.7826364,0.58267415,-0.058494996,-0.79859483,0.22630654,0.25387755,-0.78421736,-0.15779014,-0.17395851,0.2794422,-0.100322075,-0.32867306,0.8621442,0.6549931,0.45379004,-0.4478182,0.0755986,0.010302755,0.2908601,-0.42103627,-0.18257272,0.5293792,-0.61062837,0.4002286,-0.67743784,0.56230396,-0.10674394,0.38228235,0.2791967,-0.074512124,-0.5546876,-0.5463009,0.52402335
P3HP,0.11728114,-0.33870673,0.028903674,0.6731938,-0.103174,-0.36731505,0.018430665,-0.4493163,-0.8438686,0.25820655,-0.08965986,0.2789849,-0.3536324,-0.30358648,-0.18138552,0.73334116,0.07199447,0.05117053,-0.04762658,0.01981077,0.047431156,0.4244539,0.38213396,0.68823963,0.03626245,-0.21889025,0.5070527,-0.10748628,-0.21867709,0.14414847,-0.5962571,0.1884719,0.42323545,0.42165044,-0.057437878,0.54941654,0.08312877,0.45640054,-0.094269425,-0.647172,0.2759001,-0.011766651,-0.34058535,0.071900025,0.10506526,0.26760617,0.21478893,0.2936949,-0.3790636,-0.23203623,0.16827114,0.46094388,-0.21570787,0.032245092,0.016005442,-0.21745342,0.28617573,-0.1736968,-0.108182736,0.4480874,0.78675234,-0.20274211,-0.28918883,0.13345173
PE,-0.009261045,-0.16494983,0.2508365,0.37463892,0.13854797,-0.3423931,0.31522736,-0.2315601,-0.959967,0.3842797,0.19160654,0.06904632,-0.3606712,-0.14137733,-0.09579498,0.45566672,-0.16571647,0.1560748,0.016085403,-0.11061039,-0.06543086,0.44057915,0.37954447,0.41373602,-0.13971084,-0.1894395,0.59905535,0.020201402,0.11515097,0.37449402,-0.6530394,0.26012173,0.45256436,0.25064477,-0.30273443,0.43598172,0.13398986,0.08332446,-0.06629384,-0.3794722,0.2701871,-0.20478001,-0.2834339,0.37206626,0.40906382,0.46279746,0.1522563,0.26442564,-0.25954893,-0.17183147,0.061029352,0.117384724,-0.33680207,-0.15545805,0.0762336,-0.5749911,0.11045172,0.032333575,0.27428156,0.34749404,0.3464198,-0.18216947,-0.5061508,0.31904516
PBSA,0.049946446,0.03588992,0.43764582,-0.026866067,0.044589397,-0.16319917,0.45029753,0.3079658,-0.7267369,0.41327083,0.27961373,0.1787824,0.110642396,-0.1687437,0.09951706,0.32033357,-0.16204192,0.3015465,0.13830659,0.18381184,0.03296892,-0.012472149,0.2693908,0.10328979,-0.12611423,0.040913403,0.19078419,0.13583723,0.25702024,-0.053210188,-0.16333944,0.4653202,0.43441656,0.34995165,-0.36784804,0.31082505,0.27137998,-0.070685014,-0.35274863,-0.11061642,-0.23374937,-0.23906665,0.041810054,0.5119023,0.36381054,0.37719432,0.03695009,-0.040928945,-0.13113996,0.22976623,-0.24314548,0.026476186,-0.43069425,-0.29420045,0.008124773,-0.3502305,0.16295335,-0.28925923,-0.030839037,0.47885704,0.07422206,-0.30704686,-0.17730722,0.29393473
PVA,0.34573117,0.41627407,0.5342136,-0.7132341,-0.065760344,-1.4935505,1.3682579,-0.36191735,-0.9391382,1.4253774,-0.11983703,0.27427378,1.5699025,0.32096198,0.018544469,1.9051725,-0.15724814,1.2119558,0.9294379,-0.23523703,-0.28506002,-0.81992936,-0.10051829,1.2390305,0.6664954,0.7449623,-0.6329771,0.90289915,0.11307238,-0.0023729908,0.065956004,0.5782337,0.19787467,0.8491318,0.24947119,0.43126455,-0.535981,-0.27030525,0.392611,-1.0458225,0.21530195,1.2135894,-1.0257628,0.4793315,0.8654226,0.3235503,-0.80071896,0.6602175,-0.14479557,-0.07183998,-0.16428477,0.25092328,-1.4420545,-0.38231426,1.0251515,-0.90022635,1.1422384,-1.2592294,-0.84971786,1.5144551,0.6081906,-0.580892,-0.27789947,-0.56170577
PBS,0.06305628,0.0034000962,0.45956486,0.040519476,0.091749325,-0.19225094,0.43996927,0.26739994,-0.8392087,0.40694433,0.2715239,0.15997864,0.015599648,-0.20315996,0.11233654,0.35333005,-0.15541838,0.26608288,0.08149755,0.14946614,0.028505262,0.042767033,0.30361807,0.15097882,-0.15559098,0.0160164,0.29300582,0.1091906,0.28054085,0.03297944,-0.24121702,0.46290287,0.4625986,0.37511364,-0.39325595,0.35826558,0.27043992,-0.09048835,-0.33335504,-0.14335482,-0.14936265,-0.26040372,-0.0103813335,0.54403603,0.40710747,0.41534328,0.042385202,0.012312326,-0.1603718,0.17664936,-0.24241583,0.035334315,-0.43883106,-0.27774838,0.018891113,-0.39983132,0.21537104,-0.2609311,0.04506776,0.46139675,0.087835185,-0.26409042,-0.26390907,0.2987347
PS,1.0032115,-0.19459432,0.8817607,0.70596063,0.38567507,-0.4076554,0.44591287,0.19636221,-2.9390318,1.6561934,-0.24783087,0.7520469,-1.4607681,-0.557804,0.056775186,1.0734189,0.1331174,1.422384,0.80477595,-0.085606925,0.25557998,0.37427658,1.2460945,1.9642072,0.032654367,-0.17287226,2.115042,0.21823445,0.829976,1.0148417,-1.9181994,1.5793523,1.9136351,0.95582014,-1.6825207,0.5654927,1.1962653,-0.4314413,-0.6511045,-1.3569685,-0.65073395,-0.80942017,-0.8091438,1.3792043,2.0286074,1.7821301,0.16255686,-0.728953,-1.185998,0.09357357,-0.45550466,0.25185868,-0.48071325,-1.0150405,0.7302031,-1.126496,1.0763686,-0.5970982,0.115760006,0.9950413,0.5573658,-0.8933325,-2.1430357,0.8656381
PA,0.3079633,0.43683785,-0.13841346,0.15407473,0.68849987,-0.43738514,0.6222349,0.015135523,-0.8203627,0.5396,-0.50198674,0.022437466,-0.29504517,0.278965,0.52996737,0.80811024,-0.9118909,0.013248654,0.20946725,0.2369463,-0.025619695,0.1743302,-0.10695214,0.09324198,-0.056641344,0.40050286,-0.17523478,0.07788952,0.2109569,0.68717456,-0.21704455,0.7826364,0.58267415,-0.058494996,-0.79859483,0.22630654,0.25387755,-0.78421736,-0.15779014,-0.17395851,0.2794422,-0.100322075,-0.32867306,0.8621442,0.6549931,0.45379004,-0.4478182,0.0755986,0.010302755,0.2908601,-0.42103627,-0.18257272,0.5293792,-0.61062837,0.4002286,-0.67743784,0.56230396,-0.10674394,0.38228235,0.2791967,-0.074512124,-0.5546876,-0.5463009,0.52402335
PHPV,-0.08971983,0.1495514,0.039586723,0.041905876,-0.119504176,-0.18465158,0.07813613,-0.21530567,0.11902352,0.15799363,-0.071299314,0.3593754,0.4638122,0.2730836,-0.23639813,0.57627666,0.1486828,0.38240692,0.30484214,0.528306,0.2419764,-0.1938795,-0.12564199,0.16247025,0.51024,0.20252563,-0.22964698,0.10137465,-0.40009117,-0.17847572,-0.057187017,0.26857775,-0.10367563,0.030821372,0.15233283,-0.047202345,-0.19967394,0.27648443,-0.06706199,-0.13346936,0.013654467,0.21736825,-0.3578337,-0.21232055,-0.041832402,0.021461593,0.14397384,-0.13840203,-0.042184368,0.27336028,0.21176554,0.28548664,0.15655503,0.14436202,0.07281409,0.17821868,0.15341651,-0.5337865,-0.4901712,0.059026614,0.66010255,-0.3408367,0.28919813,-0.03793381
PU,0.12025295,0.24063678,0.087213755,0.01949559,0.35093212,-0.3069175,0.48320487,0.10825964,-0.6747559,0.47183678,-0.15196615,0.028258434,-0.13225572,0.123377316,0.25513372,0.5029339,-0.6654912,0.1761661,0.20480092,0.16485901,-0.028746407,0.016052065,-0.045101665,0.093369275,-0.09713596,0.2166274,0.042042527,0.16017158,0.26408008,0.2647705,-0.1641076,0.61281115,0.4310464,0.015953928,-0.57262814,0.19808273,0.14929631,-0.33195528,-0.20460388,-0.099674754,0.055871975,-0.07968624,-0.12418396,0.6299014,0.4637403,0.35285756,-0.23506333,0.061332013,-0.068645455,0.2502428,-0.2481818,-0.120027214,0.15917984,-0.44602603,0.17962651,-0.4958093,0.32214803,-0.12071785,0.07866177,0.33132872,0.01196266,-0.39846504,-0.3629555,0.3869831
