,0,1,2,3,4,5,6,7,8,9,10,11,12,13,14,15,16,17,18,19,20,21,22,23,24,25,26,27,28,29,30,31,32,33,34,35,36,37,38,39,40,41,42,43,44,45,46,47,48,49,50,51,52,53,54,55,56,57,58,59,60,61,62,63
Impranil,1.620183,1.3869661,-0.17352694,1.1641282,-1.822268,-1.2668531,0.42182595,0.5400617,-0.9059182,0.7165153,-1.1012213,0.0015588418,-0.69430834,-0.11335718,0.012831087,-0.54484814,1.4271848,0.67845124,0.09063142,-0.40004173,0.13319996,1.6010399,1.0146245,-0.04995784,-1.3671912,-0.53806597,-0.2982764,0.9192347,0.83095187,1.6774611,0.65240777,-0.963393,0.768069,0.6899976,-0.31188276,-1.1778305,0.98239946,-0.95719856,-0.68164605,0.637303,-0.63843393,0.646883,1.1205878,0.94537324,2.473269,0.18126826,1.0126048,2.0204287,1.2949549,-1.0462273,0.75290227,0.3628753,0.3191245,-0.8184998,-2.6798356,1.0547308,-1.1863358,-0.6307483,-0.54357177,0.7980034,-0.039019793,-0.48061234,0.015646191,-1.0097511
P(3HB-co-3MP),0.045895677,0.11151535,-0.14207996,0.09213357,-0.40872717,0.08384808,0.03989582,0.20016718,-0.138505,-0.26835912,0.052261043,-0.37095475,-0.18136576,0.27982485,0.31120157,0.09531717,-0.33357826,-0.31410006,0.35141483,0.06504397,0.5978459,-0.10795702,-0.20767099,0.089384444,-0.16302279,-0.10342449,-0.32514125,0.12920342,0.4445834,0.1786724,-0.003809116,-0.3823248,-0.33913982,0.17619304,0.17978951,0.19924831,-0.14897561,-0.6596739,0.08836904,0.55622256,0.03697832,-0.24829754,-0.34564513,0.31671146,0.54100615,-0.34655577,0.28357664,0.2511003,0.60068536,-0.19442162,0.51176286,-0.18212515,0.13231535,-0.2475455,0.36645067,-0.112827346,0.36143067,-0.3326847,0.51632214,-0.47640797,-0.2598716,0.11434061,0.3188238,0.20946202
ECOFLEX,-0.049162522,-0.19076747,-0.05297299,-0.040513124,0.02375351,-0.25904354,0.06478362,0.0070867995,-0.5294445,0.3841101,-0.27703238,0.27840987,-0.2287143,0.17164291,0.042402625,-0.26168263,-0.16234463,-0.22805747,0.22027357,-0.16904238,0.44798118,0.2526928,0.17942329,-0.6038523,-0.21253924,-0.42418236,0.14339986,0.24779494,0.52415556,0.18936597,-0.16840135,-0.08858688,0.055216335,0.24544333,-0.25338277,-0.49885452,-0.047999825,-0.23401716,-0.28098932,-0.09721044,-0.25569445,0.36460218,0.4897471,0.004943953,0.6110361,-0.03713181,0.15113458,0.7483115,0.50079477,-0.45974806,0.4823196,-0.44053152,0.19077905,-0.24306954,-0.78848517,0.4123179,-0.115114294,-0.5783536,-0.020416096,-0.54514545,-0.62636507,-0.42826074,0.42050576,-0.18879041
PCL,-0.15278661,-0.27730837,-0.080239095,0.043109115,-0.13440984,-0.028718954,-0.044607263,-0.03696537,-0.13641445,-0.16520216,-0.096737295,-0.28055856,0.16160282,0.16547982,0.2651902,0.035939284,-0.04611454,0.0459062,-0.04589782,0.3537981,0.19892977,-0.108925566,-0.18342666,-0.19741638,-0.2137652,-0.16161054,-0.3536622,0.17796735,-0.19533432,0.43580854,0.21730618,0.040051367,0.04514535,-0.024376687,-0.19774456,0.63433915,0.0015934263,-0.03786921,-0.0012423829,0.15651621,0.10781521,-0.42268008,-0.05869502,0.025163278,0.14271863,0.10683488,0.026732065,0.15051351,-0.099896014,-0.133791,0.07932761,0.021512762,-0.035904314,-0.07027142,0.17787887,-0.007254746,0.01340694,-0.23607108,0.06922831,0.2342346,-0.060946245,0.4677772,0.2170673,0.10704711
PLA,-0.12843461,0.58796114,0.6204291,-0.13003716,-0.72410464,0.6673036,0.024493087,0.32758203,-0.371516,-0.3578923,0.08428083,-0.54481333,0.40729457,0.6383478,-0.19453996,0.060272355,-0.038807,-0.7233317,0.58391565,0.47206527,0.59328204,-0.67834234,-0.009322901,-0.11623669,-0.43054596,0.031878456,-0.24921805,-0.24981634,0.46703923,0.58057946,-0.3597659,-0.76695895,-0.13033174,0.47675273,0.1653459,0.71742356,-0.4751487,-1.3788335,0.3704883,0.69402164,-0.27136976,-0.48742193,-0.46451285,0.89657307,0.6690447,0.36972204,0.7118265,0.6997054,0.8970694,-0.29602468,0.2861791,0.3555936,0.77388847,-0.15275328,-0.289153,0.20446485,-0.19954008,-0.60164016,0.24583517,-0.25662276,-0.55601597,0.96415406,0.35964295,0.12889428
O-PVA,-0.5001449,-1.3617691,0.99702847,-1.4556088,0.51024926,0.6759186,0.82841,0.1719897,-2.2514367,-2.4236732,-0.39979723,-0.7941164,0.30080116,-1.1204047,0.6508241,-0.2688737,1.5988028,-0.16991079,-1.1411568,1.0323145,2.6832232,-0.47037393,-0.72495216,-0.23226888,0.85589427,-1.2269833,-1.1965624,-0.693807,-0.09237102,-0.8859739,0.21875072,0.3051687,-1.1480254,1.7718558,0.20457792,-0.31941494,0.9941677,1.290215,-1.3682481,-0.672167,-1.1325009,-2.399195,-0.25509837,1.0657486,0.47746772,1.5153161,1.4714968,-1.5065123,1.1461877,2.1057599,-0.17090923,0.7794852,2.965908,0.14552952,0.7302656,-0.7511747,-0.20445976,1.5673975,-0.34992132,0.038650353,-0.24896705,2.6221645,-1.365674,-0.10892425
PMCL,-0.154057,-0.22592533,-0.047560494,0.06355285,-0.16737026,0.06265311,-0.009825123,0.031627122,-0.14133498,-0.16231671,-0.092727125,-0.32593384,0.15420577,0.23058668,0.21638267,0.05245312,-0.09181445,0.06619391,-0.00022022585,0.3564072,0.26391327,-0.111804195,-0.17164175,-0.1802794,-0.29738706,-0.14387615,-0.29886872,0.18566824,-0.09073417,0.4059291,0.16961156,-0.028331392,0.062303577,0.016630242,-0.14352565,0.64979976,-0.037740022,-0.120328076,-0.0127261765,0.17830655,0.08790056,-0.41642067,-0.12257263,0.07710611,0.12784606,0.113857225,0.07471023,0.16962443,-0.012030615,-0.14868881,0.15939687,0.063707985,0.028201565,-0.10038951,0.1580057,-0.020887362,-0.019586097,-0.26395532,0.08978712,0.20620945,-0.099172466,0.49700376,0.17128822,0.07737281
PHO,-0.20292395,-0.47502795,-0.5568088,-0.17953399,-0.07249596,-0.1768285,-0.3770147,0.010604377,-0.38512605,-0.16631877,-0.19651684,-0.2229996,-0.18793885,0.0030325062,0.5437798,-0.15543343,0.014000692,-0.41721696,-0.41137215,0.21183588,-0.20061247,-0.18707849,-0.47434795,0.23778619,0.36718476,-0.20107251,-0.9602902,-0.22442527,-0.26004073,0.04767735,-0.26319647,-0.0656901,-0.46228886,0.052400663,0.3048603,0.106210165,-0.07004553,-0.15162311,0.044143073,0.24944292,-0.048164517,-0.37721446,-0.33087137,-0.24522251,0.3878969,-0.29281786,0.17882414,-0.53681374,-0.16590376,-0.15818764,0.34469202,-0.5235171,-0.033262834,0.017368425,0.6807491,-0.12308554,0.5304572,-0.123238936,0.8019658,-0.13999452,-0.009939114,0.11819158,0.3514647,-0.20521761
PHBH,0.023599489,0.16265672,-0.054081693,0.10603246,-0.4968558,0.17680736,0.10463235,0.26694748,-0.01827777,-0.250688,0.0025196478,-0.40852877,-0.13634029,0.3369436,0.14446436,0.27099836,-0.27810082,-0.2038538,0.3236213,0.24520515,0.5789616,-0.1398887,-0.23241542,0.14160194,-0.17504616,-0.09758915,-0.34160203,0.18460487,0.2880196,0.23758584,0.047448307,-0.27878168,-0.24117397,0.22025722,0.066714115,0.35269606,-0.15647946,-0.69073963,0.0059278975,0.47392964,0.093285404,-0.35263056,-0.45221865,0.19609368,0.4362062,-0.16755928,0.36002302,0.25077876,0.53519696,-0.21446168,0.5065921,-0.04951419,0.1392942,-0.20926708,0.3109299,-0.06474981,0.324957,-0.46235836,0.41777247,-0.41471198,-0.26258063,0.19789146,0.31494096,0.11052427
LDPE,0.45281598,-1.2136558,0.75493413,-0.33882308,0.3155536,0.5690343,-1.3945155,-1.0350347,0.27892685,-0.44342595,0.29406393,0.22907747,-1.0996014,0.44986695,0.13809536,0.7126186,1.0934167,-0.17977433,0.123556204,1.0321561,-1.6601597,0.29241306,-0.33886003,2.1739268,3.0932348,0.58321077,-1.6636784,-0.7252245,-1.2872272,-0.45513046,-1.3195738,0.8738541,-0.71859044,-0.43175113,-0.0073437328,-1.0043687,-1.3977016,0.6336445,0.44362223,0.3125606,0.7631801,0.9191413,-0.10596022,0.05246143,-1.8696858,-1.48093,0.16152361,-2.468037,-0.83497775,-0.44176558,-0.29214063,-1.6661298,0.2875846,0.5626771,1.6112596,-1.5879709,1.0965862,0.10379763,-0.3531088,0.9693369,1.9424216,-1.3132305,0.73372155,-1.0467143
PPL,-0.12843461,0.58796114,0.6204291,-0.13003716,-0.72410464,0.6673036,0.024493087,0.32758203,-0.371516,-0.3578923,0.08428083,-0.54481333,0.40729457,0.6383478,-0.19453996,0.060272355,-0.038807,-0.7233317,0.58391565,0.47206527,0.59328204,-0.67834234,-0.009322901,-0.11623669,-0.43054596,0.031878456,-0.24921805,-0.24981634,0.46703923,0.58057946,-0.3597659,-0.76695895,-0.13033174,0.47675273,0.1653459,0.71742356,-0.4751487,-1.3788335,0.3704883,0.69402164,-0.27136976,-0.48742193,-0.46451285,0.89657307,0.6690447,0.36972204,0.7118265,0.6997054,0.8970694,-0.29602468,0.2861791,0.3555936,0.77388847,-0.15275328,-0.289153,0.20446485,-0.19954008,-0.60164016,0.24583517,-0.25662276,-0.55601597,0.96415406,0.35964295,0.12889428
PEA,0.9440005,1.1150075,0.5502097,-0.26093292,-2.3280535,-1.6610343,-0.61242,-2.425164,-2.7364135,-1.4943113,0.40680486,-1.0362278,1.5876938,-0.26558626,0.73361164,-1.4650253,0.063810706,0.97815394,0.30656263,2.2234902,-0.19989777,-1.4770858,-0.86745846,-0.19824794,2.3266172,2.2558148,-0.60621965,0.3984914,-0.64998055,-0.57427704,0.64499456,-1.1599592,-0.1356094,-1.5009236,1.3231751,0.96333206,2.933095,1.9221879,-1.9105731,0.7392418,-0.39150026,-0.06618509,2.6324844,0.61750084,0.91255814,2.1202233,0.8481458,-2.0769088,-1.5875459,1.4913346,-0.6564504,-1.9005853,0.6666706,0.9596879,-0.09576848,-0.03138164,-0.42664832,2.8110874,-0.354652,3.1815093,1.8595551,1.9164518,1.159238,-1.0939579
P4HB,-0.055903014,0.14420442,0.14329119,-0.041876506,-0.5809993,0.37997133,0.16960812,0.2603572,-0.12478063,-0.10508782,-0.10562711,-0.24013676,0.14800712,0.5014181,0.010944749,0.19068572,-0.06040926,0.054067142,0.194813,0.48053172,0.37315503,-0.22277945,-0.24637805,0.019104043,-0.48220292,0.009989499,-0.22672077,0.25590605,0.2269568,0.38201806,0.03811994,-0.3338988,0.16104013,0.13766178,-0.09019353,0.65910596,-0.087459184,-0.50719607,0.09486148,0.35499665,-0.07558779,-0.41850698,-0.43120486,0.21879454,-0.019868208,0.24295065,0.3797052,0.15035203,0.41770774,-0.29564363,0.31972346,0.106602624,0.3499966,-0.21321212,0.0008930899,0.06784374,-0.035042778,-0.41264254,0.10168958,0.014733539,-0.15365285,0.5950391,0.19760755,0.051491972
PHBV,0.06943328,0.305674,0.012421503,0.052047435,-0.5959428,0.3209937,0.13832419,0.2858083,0.022894427,-0.23135489,0.031029806,-0.42546853,-0.18570498,0.43801883,0.122474425,0.34026352,-0.28045616,-0.26778725,0.39928183,0.26039773,0.65104085,-0.16962042,-0.23150991,0.20093204,-0.25369766,-0.090276025,-0.29100654,0.21066989,0.38968104,0.22328919,0.034044843,-0.34990042,-0.22707899,0.2770438,0.08229877,0.3295152,-0.20904821,-0.83240676,0.034370355,0.55125344,0.025182938,-0.3116908,-0.6007995,0.27772215,0.38072112,-0.1722802,0.38159966,0.25758097,0.6936993,-0.28454342,0.57500494,-0.011168667,0.17875807,-0.24981453,0.3038888,-0.07207972,0.3064312,-0.5040198,0.3490019,-0.49403146,-0.2788814,0.18810697,0.32062477,0.10476343
PBSeT,-0.30570865,-0.439656,0.34600922,0.18169488,0.2598111,-0.1195021,-0.40433392,0.12143036,-0.67281294,-0.13709675,0.30180493,-0.1035298,0.068129376,0.54559386,0.29930967,-0.14907661,-0.27339786,-0.07971708,-0.17615186,0.16046898,0.35325035,-0.6784654,0.21783255,-0.37928155,-0.46875256,-0.40295276,-0.45523933,-0.3607908,-0.34351116,0.5422825,0.05744132,0.18661496,0.18404295,-0.28146774,-0.028797776,0.2992772,-0.2557187,0.35154653,0.036474977,-0.12283461,-0.31319594,-0.1911411,0.3123666,0.025774522,-0.12172731,0.58343405,0.006226389,-0.09071193,-0.32782748,0.07705298,-0.10553206,0.2345859,-0.11786162,0.03451439,-0.24967778,0.048225336,-0.54056746,-0.10513898,0.09747757,0.84523195,-0.21505885,0.8008959,0.3704317,0.013325251
PET,-0.2679155,-0.7028163,0.43864942,0.20259131,0.46967858,-0.052167915,-0.52683717,-0.004199397,-1.0527098,-0.16286162,0.31798697,-0.16467547,0.080426134,0.5205872,0.0944486,-0.36372253,-0.46863294,-0.23257658,-0.18541418,0.081259556,0.35452133,-0.8790227,0.13523385,-0.33111945,-0.37746388,-0.4197785,-0.51959723,-0.44108143,-0.22757588,0.7012322,-0.22427621,0.06831093,0.23072386,-0.3201965,0.074411556,0.23031431,-0.37519225,0.5673056,0.13247877,-0.18384188,-0.39129996,-0.09161506,0.4060684,0.14248519,-0.18025202,0.47662285,0.27308366,-0.22524452,-0.5083411,-0.03374153,-0.28486958,0.26012418,-0.22474858,0.009112496,-0.41300818,0.029491143,-0.5197789,-0.15049054,0.4566655,0.9496929,-0.3766046,0.5673946,0.525363,-0.1775494
PHBVH,0.09261725,0.37131163,0.040202208,0.0567098,-0.62278336,0.35286936,0.17519821,0.3246891,0.047466308,-0.21760853,0.08164671,-0.40328476,-0.21355808,0.50539136,0.09960319,0.38919592,-0.2919226,-0.28014836,0.45410317,0.25280723,0.6764577,-0.16799562,-0.24542154,0.253781,-0.25226277,-0.08296545,-0.24777979,0.21782067,0.40478215,0.1899533,0.064802155,-0.4047628,-0.2295316,0.27880678,0.08473211,0.2632304,-0.21633337,-0.8985807,0.039449923,0.6078863,0.024742307,-0.28106675,-0.66020805,0.28644776,0.38289788,-0.19003356,0.41483858,0.27859646,0.76639515,-0.30621532,0.61293334,-0.04484482,0.19482584,-0.27806014,0.30599973,-0.056341816,0.29643163,-0.5200304,0.3619134,-0.54973227,-0.29129046,0.15392901,0.36322403,0.13279012
NR,0.5396069,-0.95595396,-0.032502666,0.45241323,-0.039220065,-0.85313636,-1.3871574,-1.1929021,-0.56765205,-0.48182017,0.19634534,-0.093625896,-0.17081179,0.39555335,0.010772128,-0.73350364,0.7663125,-0.6207684,0.10084854,0.67451245,-1.5866911,-0.52012455,0.097716294,0.9499247,1.197415,0.38642627,-0.65781087,-0.25833318,-0.92371094,0.6963404,-1.7377412,0.1771968,-0.8454132,-0.5440675,0.381219,0.029280929,-0.4317534,0.7207641,-0.11966345,-0.819377,0.58513325,0.539839,0.36841488,0.3056616,-0.294963,-1.0413023,0.46656507,-0.7933015,-1.3770305,-0.13271467,-0.7977858,-1.5431103,-0.06375048,0.37667173,0.36966014,-0.20366791,0.29358855,-0.2662385,-0.008301451,0.7940534,1.1198425,-0.5393802,1.3795723,-0.9901295
PBAT,0.048389547,-0.3497584,0.072004765,-0.15936829,0.14792517,-0.22324422,-0.10181901,-0.12362518,-0.4023411,0.1970306,-0.18035813,0.18263327,0.024876498,0.21925372,0.08721006,-0.11333839,0.13140303,-0.039210133,-0.05190563,0.066225305,0.17409985,-0.016926244,-0.007019381,-0.49199983,-0.113908134,-0.2656084,-0.039646015,0.0034927342,0.061778776,0.14837079,-0.19626006,0.03190167,0.04106525,0.25492886,-0.12200345,-0.098063014,0.08081396,0.12764329,-0.1394072,-0.11110792,-0.24775296,0.09979952,0.4245601,-0.08534676,0.24015749,0.065474086,-0.059913997,0.22952402,0.097926676,-0.19006766,0.1735598,-0.15589091,0.109452486,-0.045955066,-0.42682153,0.26407626,-0.19115143,-0.28782696,-0.047261525,-0.24860299,-0.2680291,-0.108180575,0.11302839,0.042465277
PEG,0.21305488,0.18738064,-0.11415409,-0.27055702,-0.58165056,0.29084077,0.35159627,-0.6704682,-0.18504673,-0.3406611,0.28637296,0.7820038,0.11782056,0.14684202,0.06410581,0.36951786,0.26406673,0.59605396,-0.028176948,0.7018734,-0.22311562,0.3061114,-0.19529334,0.2104936,1.1561179,0.63106835,-0.7517746,0.43747678,-0.13031411,-0.40508518,0.243751,-0.7251547,0.6250121,-0.22258067,-0.33135352,-0.6734871,0.085306965,-0.17229162,-0.1131004,0.22829705,0.13875155,-0.38070714,0.418188,0.38216487,-0.3237706,0.5834168,0.61885166,-0.63844144,0.2922427,0.37655038,-0.07303347,-0.89328563,0.5493922,-0.21148989,0.1927367,-0.17887087,-0.13689537,1.1647242,-0.5080114,0.30449754,0.21913017,0.17117992,0.49601433,-0.046145774
PEF,0.7677431,0.1594395,1.7316082,-1.105958,0.43586555,0.6789603,0.045412004,0.22245094,-1.4228798,-0.014917407,-0.34006587,-1.1887803,-0.38710853,1.0526437,-0.18086283,-0.78230137,1.0666327,-0.9293792,-0.119324945,-0.60174644,2.0861173,-0.7431382,1.8205065,-1.0548508,-1.9166273,-1.0793434,0.23925889,-0.20440651,0.94613874,-0.03571543,-0.59509355,-0.7741964,1.2335556,1.777842,-0.1824714,-0.42244428,0.27422556,0.5003433,0.14654636,0.5698008,-0.7953819,1.0597419,-0.5724397,1.2546186,0.6199543,0.42706805,0.39756224,1.0216956,1.4252366,-0.6102348,1.1611315,1.5812706,1.8434805,-0.6330269,-0.022683557,1.1152574,-1.4773045,-0.09817078,-1.1262741,-0.27032092,-1.3759432,1.7041687,-0.49182093,0.39350322
PHV,0.0025761768,0.08278377,-0.077778734,0.030893074,-0.44067296,0.20925316,0.07355854,0.18725763,-0.023929214,-0.25048468,-0.019941978,-0.43310955,-0.15020385,0.2897338,0.19446667,0.2555565,-0.24154115,-0.22524545,0.28361148,0.2326275,0.5734141,-0.15099618,-0.23500288,0.094237335,-0.1842143,-0.14133736,-0.3656402,0.14902353,0.2799015,0.23827049,-0.008268153,-0.22561918,-0.2336761,0.24756454,0.06445563,0.37909472,-0.17236227,-0.6529068,0.020090153,0.45493597,0.05528549,-0.36221665,-0.47262672,0.18394864,0.38438478,-0.18042623,0.27985698,0.18507981,0.4984665,-0.23025307,0.48933443,-0.04034132,0.12994781,-0.18715847,0.348215,-0.12312996,0.38153714,-0.45462596,0.37951955,-0.42165902,-0.27230012,0.1836366,0.27227706,0.08502181
PES,-0.51010895,-1.1363999,0.2240393,-0.27863106,0.98825455,-1.4399658,0.16770475,-0.74951684,-1.9892408,-0.6027305,0.5545603,-0.20746134,0.6821905,0.4297016,1.1080492,-0.3150335,-0.22542758,0.046534855,-0.30746686,1.1722567,1.0621535,-0.61392224,0.65097046,-1.2094257,0.8891234,-1.2766125,-0.39004055,-1.3582871,-1.6917952,1.8980588,-0.40455726,0.8622815,-0.34789842,-0.20548366,-0.06955357,0.4386693,0.029428443,0.80846375,-1.646952,-0.12590188,0.13684097,-1.2034751,0.118286565,0.7964573,1.5385255,0.96848524,0.31593937,0.39392722,-0.8460095,1.1877856,0.82435,-1.0676607,0.07047572,-0.40165815,-1.293731,-0.9534869,-1.1494613,0.21072079,-0.40726352,1.2861627,-0.4276445,1.1559072,1.9367294,0.4395132
PHB,0.08992706,0.43858677,0.10444044,0.023865132,-0.72355807,0.4046806,0.1847142,0.32164678,-0.01644754,-0.22900234,0.025496619,-0.46479264,-0.084106945,0.49293542,0.041224718,0.3307265,-0.25780752,-0.3042163,0.46970615,0.29429635,0.67717886,-0.27278975,-0.22822127,0.17061527,-0.39295265,-0.03522726,-0.24101412,0.23324557,0.4861224,0.32685465,0.0130119035,-0.4373235,-0.19012395,0.32842386,0.066168115,0.43600792,-0.19250338,-0.8993823,0.1086143,0.5763636,-0.037741736,-0.33595642,-0.61914957,0.39781743,0.39759207,-0.106241755,0.46612638,0.353838,0.7736359,-0.32162133,0.54559404,0.09881749,0.2791967,-0.31043366,0.18067655,-0.010091534,0.19525671,-0.5205706,0.31488082,-0.48877782,-0.32303384,0.31454846,0.3471493,0.11589045
Nylon,0.1826356,0.28528476,0.3505191,-0.10331378,-0.7431129,-0.7037496,-0.654798,-0.2178221,-0.55201787,-0.2364525,0.031648744,-0.75969684,0.48661277,0.11023484,0.21247765,-0.64628553,0.10565576,0.32028726,-0.03672295,0.9257812,-0.1903919,-0.4100306,-0.5755436,-0.017586766,0.18922055,0.20385201,-0.20712523,0.10958875,-0.5118051,0.23526508,0.507905,-0.16783477,-0.08462211,-0.59120363,0.49299693,0.8169648,0.4970741,0.09396089,-0.2734409,0.290585,-0.13879566,-0.09156291,0.23369704,-0.18882483,0.33791876,0.69352883,0.36680326,-0.29539025,-0.44142407,0.16157356,-0.2183828,-0.12719688,-0.0627059,0.4078678,-0.11631974,0.07918273,-0.2268306,0.07445159,-0.13969654,1.2632517,0.38842583,0.92531514,0.40256533,-0.20893866
P3HP,0.055708338,0.5559601,0.26570934,-0.1934638,-1.0852834,0.48991477,0.4351872,0.29506248,-0.19669825,-0.047039557,-0.08683658,0.026452988,0.17155087,0.7369938,-0.11296934,0.44347048,-0.084973216,-0.084569715,0.43473494,0.499348,0.47210366,-0.28466442,-0.30130273,0.18342814,-0.6270828,0.15681964,-0.18998908,0.37008363,0.5726902,0.36521456,0.08769958,-0.7671933,0.25212872,0.32210737,-0.13768363,0.42018935,-0.15745676,-0.9778955,0.21667857,0.6268935,-0.2930525,-0.33882654,-0.6753609,0.4482561,0.05708808,0.26826528,0.7602788,0.33425617,0.94635814,-0.41828328,0.57075346,0.03636096,0.62089705,-0.44776073,-0.16290525,0.24373403,0.040452186,-0.5560551,0.17273697,-0.3097197,-0.3272294,0.5395601,0.42938897,-0.024614187
PE,0.45281598,-1.2136558,0.75493413,-0.33882308,0.3155536,0.5690343,-1.3945155,-1.0350347,0.27892685,-0.44342595,0.29406393,0.22907747,-1.0996014,0.44986695,0.13809536,0.7126186,1.0934167,-0.17977433,0.123556204,1.0321561,-1.6601597,0.29241306,-0.33886003,2.1739268,3.0932348,0.58321077,-1.6636784,-0.7252245,-1.2872272,-0.45513046,-1.3195738,0.8738541,-0.71859044,-0.43175113,-0.0073437328,-1.0043687,-1.3977016,0.6336445,0.44362223,0.3125606,0.7631801,0.9191413,-0.10596022,0.05246143,-1.8696858,-1.48093,0.16152361,-2.468037,-0.83497775,-0.44176558,-0.29214063,-1.6661298,0.2875846,0.5626771,1.6112596,-1.5879709,1.0965862,0.10379763,-0.3531088,0.9693369,1.9424216,-1.3132305,0.73372155,-1.0467143
PBSA,-0.098160006,-0.11450032,-0.042193063,0.00698304,-0.38003877,0.22664843,0.022474136,0.19673236,-0.1643018,-0.10495512,-0.13099127,-0.44109252,0.13903683,0.4848302,0.15641946,-0.0097110085,0.12316309,0.15627126,0.04978117,0.3186733,0.52766836,-0.24204968,-0.02881804,-0.20658992,-0.64686155,-0.19275165,-0.2835616,0.13551685,0.0032706184,0.4765852,0.17019798,0.028988587,0.20204322,0.22014971,-0.10955379,0.5688901,-0.08980346,0.045492142,0.006613523,0.038015045,-0.13022538,-0.32369176,-0.14067334,0.033716805,-0.03980074,0.045639783,0.07935301,-0.0012657973,0.2253544,-0.25361928,0.12853183,0.15841417,0.16196069,-0.02165915,-0.13839334,0.015809858,-0.2666605,-0.28406844,-0.08859077,0.38272157,0.0052620815,0.6550006,0.06399525,0.10127984
PVA,0.029925399,0.5145241,-0.46188417,-0.15292187,-0.5012951,-0.17302777,-0.053240318,-0.36688375,-0.16051224,-0.8120467,0.63914824,-0.69329983,-0.2700131,-0.28169224,0.27879927,-0.16639248,0.17379431,-0.36094657,-0.046575032,0.1995359,0.85269177,-0.21392661,-0.8184445,-0.24459334,1.0161906,0.6222888,-0.9855808,0.064666644,0.25578958,-0.61136293,-0.41952357,-0.27492207,-0.08389492,0.33716208,0.76779646,-0.21573654,0.48208025,-0.48560393,-0.14751026,0.18097524,0.43482533,-0.5393703,0.28000033,0.46058384,1.0917118,-0.03203043,0.55661553,-0.67655647,0.35850134,0.7657795,-0.27924925,-0.24456178,0.63445866,-0.36561486,0.4501041,-0.6116812,0.063676775,0.81212616,0.15292984,0.27366936,0.13267559,1.3529013,-0.46327564,0.26192743
PBS,-0.09124676,-0.07254516,-0.040966943,-0.0119318105,-0.43247786,0.25844455,0.025630508,0.21011244,-0.18705897,-0.110242315,-0.1458755,-0.46918425,0.16194667,0.5192796,0.14832582,-0.025460232,0.13244414,0.1448379,0.05247234,0.34323174,0.5514508,-0.27395055,-0.03576408,-0.20578642,-0.6923245,-0.18110332,-0.294774,0.13829176,0.042502582,0.49323568,0.13959809,-0.009114418,0.23860222,0.2474164,-0.092067264,0.59368056,-0.10124691,0.020115545,0.009691256,0.047062155,-0.14621747,-0.3191735,-0.16672431,0.07003057,-0.051395934,0.04020258,0.12503941,-0.026107792,0.26164758,-0.2742047,0.15403563,0.16695413,0.20715454,-0.051657967,-0.1526222,0.010171283,-0.28404713,-0.28962848,-0.094513826,0.42347565,0.0034001044,0.71029407,0.04187211,0.08824365
PS,0.42922452,-1.4841517,0.8524,0.27176768,0.20602995,-1.4415635,-1.5069181,-1.9390538,-2.1376123,-1.5753323,0.8311928,-1.2922045,-0.15603217,0.03241946,0.06711177,-1.4024045,0.3790316,-0.84758765,-0.068994746,0.20827429,-0.7593968,-1.0778385,-0.25454184,0.61886925,1.4579765,0.17585617,-0.71086687,-0.84805965,-0.6087073,1.7042319,-1.982069,1.5459312,-1.1964899,-0.9716437,0.84414023,0.9868888,-0.1704242,1.7119045,-0.9368501,-1.3540635,0.30731592,-0.707846,0.7874839,0.5201983,0.2683675,-0.5092268,0.85026664,-1.9025909,-2.000414,0.19444539,-1.9471408,-0.714248,0.03734871,0.25745183,0.015304648,-0.64058363,0.17828709,0.25719562,-0.35717675,1.8184747,1.2481627,0.34073085,1.7612416,-1.5995773
PA,0.1826356,0.28528476,0.3505191,-0.10331378,-0.7431129,-0.7037496,-0.654798,-0.2178221,-0.55201787,-0.2364525,0.031648744,-0.75969684,0.48661277,0.11023484,0.21247765,-0.64628553,0.10565576,0.32028726,-0.03672295,0.9257812,-0.1903919,-0.4100306,-0.5755436,-0.017586766,0.18922055,0.20385201,-0.20712523,0.10958875,-0.5118051,0.23526508,0.507905,-0.16783477,-0.08462211,-0.59120363,0.49299693,0.8169648,0.4970741,0.09396089,-0.2734409,0.290585,-0.13879566,-0.09156291,0.23369704,-0.18882483,0.33791876,0.69352883,0.36680326,-0.29539025,-0.44142407,0.16157356,-0.2183828,-0.12719688,-0.0627059,0.4078678,-0.11631974,0.07918273,-0.2268306,0.07445159,-0.13969654,1.2632517,0.38842583,0.92531514,0.40256533,-0.20893866
PHPV,0.07409351,0.38589078,0.1250773,-0.03687554,-0.69300514,0.4044982,0.22837862,0.29800144,0.07376897,-0.10717706,0.041818045,-0.2987065,-0.12007196,0.5830392,0.0077287005,0.47935078,-0.22780417,-0.19000892,0.47998992,0.3245721,0.55007064,-0.17382522,-0.2868455,0.2743011,-0.35460788,-0.0031528252,-0.14269178,0.27292246,0.4256828,0.21768703,0.07494881,-0.46844035,-0.100803606,0.26271453,-0.008632093,0.29829547,-0.199406,-0.9093373,0.10355215,0.6436924,-0.041034643,-0.20653714,-0.7051651,0.3051506,0.20513552,-0.046197698,0.41558886,0.27214885,0.76648915,-0.36899528,0.5475611,-0.05303561,0.2811772,-0.297387,0.16407456,0.032930553,0.24500787,-0.51994646,0.24076197,-0.47820264,-0.26743892,0.17471966,0.3811952,0.110877454
PU,-0.34509382,-0.18623266,0.6520457,0.18195817,0.038184874,-0.81427044,-0.30376363,-0.070289485,-1.2564805,-0.28353924,-0.30940318,-0.47181377,-0.19450548,0.49615672,0.25086308,-0.69746983,-0.06472196,0.22417007,0.044454556,0.43928957,0.40001655,0.15842119,-0.505002,-0.19989982,-0.09831078,-0.73074585,0.1773998,-0.5059308,-0.5678526,0.40893954,0.70930463,0.46514672,-0.054758772,-0.028768614,-0.07047776,-0.20466304,0.31623548,0.24488004,-0.5850233,0.29085293,-0.14256829,-0.5112187,0.42280632,-0.04726986,0.72675633,0.5497885,0.15571399,-0.27066207,0.22764415,-0.61372477,-0.4836402,0.027071457,-0.06660631,0.35807374,-0.76746196,0.44061074,-0.14125751,0.11830762,0.08549787,0.33677518,-0.08298212,0.39883283,0.7978421,0.08634167
